FANN_FLO_2.1
num_layers=3
learning_rate=0.700000
connection_rate=1.000000
network_type=0
learning_momentum=0.000000
training_algorithm=2
train_error_function=1
train_stop_function=0
cascade_output_change_fraction=0.010000
quickprop_decay=-0.000100
quickprop_mu=1.750000
rprop_increase_factor=1.200000
rprop_decrease_factor=0.500000
rprop_delta_min=0.000000
rprop_delta_max=50.000000
rprop_delta_zero=0.100000
cascade_output_stagnation_epochs=12
cascade_candidate_change_fraction=0.010000
cascade_candidate_stagnation_epochs=12
cascade_max_out_epochs=150
cascade_min_out_epochs=50
cascade_max_cand_epochs=150
cascade_min_cand_epochs=50
cascade_num_candidate_groups=2
bit_fail_limit=3.49999994039535522461e-01
cascade_candidate_limit=1.00000000000000000000e+03
cascade_weight_multiplier=4.00000005960464477539e-01
cascade_activation_functions_count=10
cascade_activation_functions=3 5 7 8 10 11 14 15 16 17 
cascade_activation_steepnesses_count=4
cascade_activation_steepnesses=2.50000000000000000000e-01 5.00000000000000000000e-01 7.50000000000000000000e-01 1.00000000000000000000e+00 
layer_sizes=32 4 3 
scale_included=0
neurons (num_inputs, activation_function, activation_steepness)=(0, 0, 0.00000000000000000000e+00) (0, 0, 0.00000000000000000000e+00) (0, 0, 0.00000000000000000000e+00) (0, 0, 0.00000000000000000000e+00) (0, 0, 0.00000000000000000000e+00) (0, 0, 0.00000000000000000000e+00) (0, 0, 0.00000000000000000000e+00) (0, 0, 0.00000000000000000000e+00) (0, 0, 0.00000000000000000000e+00) (0, 0, 0.00000000000000000000e+00) (0, 0, 0.00000000000000000000e+00) (0, 0, 0.00000000000000000000e+00) (0, 0, 0.00000000000000000000e+00) (0, 0, 0.00000000000000000000e+00) (0, 0, 0.00000000000000000000e+00) (0, 0, 0.00000000000000000000e+00) (0, 0, 0.00000000000000000000e+00) (0, 0, 0.00000000000000000000e+00) (0, 0, 0.00000000000000000000e+00) (0, 0, 0.00000000000000000000e+00) (0, 0, 0.00000000000000000000e+00) (0, 0, 0.00000000000000000000e+00) (0, 0, 0.00000000000000000000e+00) (0, 0, 0.00000000000000000000e+00) (0, 0, 0.00000000000000000000e+00) (0, 0, 0.00000000000000000000e+00) (0, 0, 0.00000000000000000000e+00) (0, 0, 0.00000000000000000000e+00) (0, 0, 0.00000000000000000000e+00) (0, 0, 0.00000000000000000000e+00) (0, 0, 0.00000000000000000000e+00) (0, 0, 0.00000000000000000000e+00) (32, 5, 5.00000000000000000000e-01) (32, 5, 5.00000000000000000000e-01) (32, 5, 5.00000000000000000000e-01) (0, 5, 0.00000000000000000000e+00) (4, 5, 5.00000000000000000000e-01) (4, 5, 5.00000000000000000000e-01) (0, 5, 0.00000000000000000000e+00) 
connections (connected_to_neuron, weight)=(0, -6.63938969373703002930e-02) (1, -8.21754783391952514648e-02) (2, 7.67983123660087585449e-02) (3, -5.09113818407058715820e-02) (4, -6.75942152738571166992e-02) (5, -5.59304617345333099365e-02) (6, -2.32606381177902221680e-02) (7, 5.84948882460594177246e-02) (8, -7.64386206865310668945e-02) (9, 9.61523875594139099121e-02) (10, 3.32966521382331848145e-02) (11, 1.66582241654396057129e-02) (12, -2.52991095185279846191e-02) (13, -2.07987427711486816406e-03) (14, 4.35584858059883117676e-02) (15, 8.74861553311347961426e-02) (16, -2.02390998601913452148e-02) (17, 4.14195284247398376465e-02) (18, -6.18954412639141082764e-02) (19, -7.66262412071228027344e-02) (20, -5.72123043239116668701e-02) (21, 3.27718332409858703613e-02) (22, -3.97612154483795166016e-03) (23, -2.66630947589874267578e-02) (24, 7.33513161540031433105e-02) (25, 1.54154300689697265625e-02) (26, 8.71262475848197937012e-02) (27, -6.91819861531257629395e-02) (28, 5.83433136343955993652e-02) (29, -2.39405930042266845703e-02) (30, 3.04211005568504333496e-02) (31, 8.74693915247917175293e-02) (0, 9.79568287730216979980e-02) (1, -3.97181399166584014893e-02) (2, 5.72682842612266540527e-02) (3, -9.19264107942581176758e-02) (4, -7.12980329990386962891e-03) (5, -3.06502953171730041504e-02) (6, 6.05278536677360534668e-02) (7, 9.14766266942024230957e-02) (8, 4.76663485169410705566e-02) (9, -7.16887116432189941406e-02) (10, -7.21779316663742065430e-02) (11, -9.44910421967506408691e-02) (12, 8.91258493065834045410e-02) (13, -6.19243569672107696533e-02) (14, 3.73280569911003112793e-02) (15, -2.73920372128486633301e-02) (16, 2.20843553543090820312e-02) (17, -2.83090397715568542480e-02) (18, 9.93154942989349365234e-03) (19, -8.03727358579635620117e-02) (20, -2.46121138334274291992e-02) (21, -5.57042583823204040527e-02) (22, -2.14515030384063720703e-02) (23, 6.46109655499458312988e-02) (24, -8.35601985454559326172e-02) (25, 3.81674617528915405273e-03) (26, -5.19994385540485382080e-02) (27, 4.54334691166877746582e-02) (28, 2.83703207969665527344e-04) (29, -3.16585227847099304199e-02) (30, -8.48153904080390930176e-02) (31, -9.22069922089576721191e-02) (0, 7.71414861083030700684e-02) (1, -8.30541104078292846680e-02) (2, -9.04867127537727355957e-02) (3, -1.01530030369758605957e-02) (4, -4.15260381996631622314e-02) (5, 7.19280913472175598145e-02) (6, 9.54075679183006286621e-02) (7, -8.49058553576469421387e-02) (8, -1.27140134572982788086e-02) (9, -8.43389704823493957520e-02) (10, -8.50501656532287597656e-02) (11, -3.81168015301227569580e-02) (12, -2.90374383330345153809e-02) (13, -3.22458595037460327148e-02) (14, 4.38899472355842590332e-02) (15, 5.82144036889076232910e-02) (16, 9.36820358037948608398e-03) (17, 5.14625981450080871582e-02) (18, -6.79537057876586914062e-02) (19, -9.78155285120010375977e-02) (20, 1.44404917955398559570e-02) (21, -9.86707136034965515137e-02) (22, 4.12976965308189392090e-02) (23, 9.03287902474403381348e-02) (24, -4.41241338849067687988e-02) (25, 5.75111061334609985352e-03) (26, 5.88339492678642272949e-02) (27, 2.21411958336830139160e-02) (28, -7.29331895709037780762e-02) (29, 1.18830949068069458008e-02) (30, -8.08449387550354003906e-02) (31, 3.91019657254219055176e-02) (32, -1.31592229008674621582e-02) (33, 3.29664424061775207520e-02) (34, 6.67747333645820617676e-02) (35, 8.28385278582572937012e-02) (32, 6.70921877026557922363e-02) (33, 1.83781161904335021973e-02) (34, 8.09355601668357849121e-02) (35, 8.40049609541893005371e-02) 
