FANN_FLO_2.1
num_layers=3
learning_rate=0.700000
connection_rate=1.000000
network_type=0
learning_momentum=0.000000
training_algorithm=2
train_error_function=1
train_stop_function=0
cascade_output_change_fraction=0.010000
quickprop_decay=-0.000100
quickprop_mu=1.750000
rprop_increase_factor=1.200000
rprop_decrease_factor=0.500000
rprop_delta_min=0.000000
rprop_delta_max=50.000000
rprop_delta_zero=0.100000
cascade_output_stagnation_epochs=12
cascade_candidate_change_fraction=0.010000
cascade_candidate_stagnation_epochs=12
cascade_max_out_epochs=150
cascade_min_out_epochs=50
cascade_max_cand_epochs=150
cascade_min_cand_epochs=50
cascade_num_candidate_groups=2
bit_fail_limit=3.49999994039535522461e-01
cascade_candidate_limit=1.00000000000000000000e+03
cascade_weight_multiplier=4.00000005960464477539e-01
cascade_activation_functions_count=10
cascade_activation_functions=3 5 7 8 10 11 14 15 16 17 
cascade_activation_steepnesses_count=4
cascade_activation_steepnesses=2.50000000000000000000e-01 5.00000000000000000000e-01 7.50000000000000000000e-01 1.00000000000000000000e+00 
layer_sizes=42 6 3 
scale_included=0
neurons (num_inputs, activation_function, activation_steepness)=(0, 0, 0.00000000000000000000e+00) (0, 0, 0.00000000000000000000e+00) (0, 0, 0.00000000000000000000e+00) (0, 0, 0.00000000000000000000e+00) (0, 0, 0.00000000000000000000e+00) (0, 0, 0.00000000000000000000e+00) (0, 0, 0.00000000000000000000e+00) (0, 0, 0.00000000000000000000e+00) (0, 0, 0.00000000000000000000e+00) (0, 0, 0.00000000000000000000e+00) (0, 0, 0.00000000000000000000e+00) (0, 0, 0.00000000000000000000e+00) (0, 0, 0.00000000000000000000e+00) (0, 0, 0.00000000000000000000e+00) (0, 0, 0.00000000000000000000e+00) (0, 0, 0.00000000000000000000e+00) (0, 0, 0.00000000000000000000e+00) (0, 0, 0.00000000000000000000e+00) (0, 0, 0.00000000000000000000e+00) (0, 0, 0.00000000000000000000e+00) (0, 0, 0.00000000000000000000e+00) (0, 0, 0.00000000000000000000e+00) (0, 0, 0.00000000000000000000e+00) (0, 0, 0.00000000000000000000e+00) (0, 0, 0.00000000000000000000e+00) (0, 0, 0.00000000000000000000e+00) (0, 0, 0.00000000000000000000e+00) (0, 0, 0.00000000000000000000e+00) (0, 0, 0.00000000000000000000e+00) (0, 0, 0.00000000000000000000e+00) (0, 0, 0.00000000000000000000e+00) (0, 0, 0.00000000000000000000e+00) (0, 0, 0.00000000000000000000e+00) (0, 0, 0.00000000000000000000e+00) (0, 0, 0.00000000000000000000e+00) (0, 0, 0.00000000000000000000e+00) (0, 0, 0.00000000000000000000e+00) (0, 0, 0.00000000000000000000e+00) (0, 0, 0.00000000000000000000e+00) (0, 0, 0.00000000000000000000e+00) (0, 0, 0.00000000000000000000e+00) (0, 0, 0.00000000000000000000e+00) (42, 5, 5.00000000000000000000e-01) (42, 5, 5.00000000000000000000e-01) (42, 5, 5.00000000000000000000e-01) (42, 5, 5.00000000000000000000e-01) (42, 5, 5.00000000000000000000e-01) (0, 5, 0.00000000000000000000e+00) (6, 5, 5.00000000000000000000e-01) (6, 5, 5.00000000000000000000e-01) (0, 5, 0.00000000000000000000e+00) 
connections (connected_to_neuron, weight)=(0, -4.65678558349609375000e+01) (1, -4.95250940322875976562e+00) (2, 5.23329544067382812500e+00) (3, 3.38189430236816406250e+01) (4, -7.54201416015625000000e+02) (5, -2.02604651451110839844e+00) (6, 8.48324537277221679688e-01) (7, -6.61708602905273437500e+01) (8, 7.51804065704345703125e+00) (9, -1.87754940986633300781e+00) (10, 1.62101060152053833008e-01) (11, -3.68647918701171875000e+01) (12, -1.38893783569335937500e+02) (13, -8.30868661403656005859e-01) (14, 2.96124482154846191406e+00) (15, -3.68080558776855468750e+01) (16, 6.67817504882812500000e+02) (17, -1.23749458789825439453e+00) (18, 8.53516384959220886230e-02) (19, -2.74533867835998535156e+00) (20, -2.89538208007812500000e+02) (21, 1.63198745250701904297e+00) (22, 1.28887271881103515625e+00) (23, 1.02258666992187500000e+02) (24, -1.50000000000000000000e+03) (25, 6.89342737197875976562e-01) (26, -7.13194608688354492188e-01) (27, -2.07052555084228515625e+01) (28, 1.19868737792968750000e+03) (29, -2.01370224356651306152e-01) (30, 1.58438444137573242188e+00) (31, -3.05845203399658203125e+01) (32, 1.35958264160156250000e+03) (33, 3.23112893104553222656e+00) (34, 1.84838819503784179688e+00) (35, 1.14460563659667968750e+02) (36, -5.56058288574218750000e+02) (37, -7.68956613540649414062e+00) (38, 2.77363529205322265625e+01) (39, 6.37428359985351562500e+01) (40, 3.25579681396484375000e+02) (41, 2.56157226562500000000e+01) (0, -9.58583450317382812500e+01) (1, -2.96868991851806640625e+00) (2, -1.08527956008911132812e+01) (3, -3.76840705871582031250e+01) (4, 1.50000000000000000000e+03) (5, 1.37784421443939208984e+00) (6, -1.24064750671386718750e+01) (7, -8.56178817749023437500e+01) (8, 3.79240631103515625000e+02) (9, 1.90806841850280761719e+00) (10, 4.84467363357543945312e+00) (11, -6.80396270751953125000e+01) (12, -8.57837585449218750000e+02) (13, -1.86322820186614990234e+00) (14, -2.57397842407226562500e+00) (15, 5.90446510314941406250e+01) (16, -1.76747589111328125000e+02) (17, 9.39830112457275390625e+00) (18, -5.55098867416381835938e+00) (19, -1.25317537784576416016e+00) (20, 1.23180102539062500000e+03) (21, -1.69676494598388671875e+00) (22, -6.40438497066497802734e-02) (23, -3.88487739562988281250e+01) (24, -1.50000000000000000000e+03) (25, -3.83414888381958007812e+00) (26, -1.22635948657989501953e+00) (27, 7.57731704711914062500e+01) (28, 1.50000000000000000000e+03) (29, 2.81409668922424316406e+00) (30, -6.80913066864013671875e+00) (31, 8.78592987060546875000e+01) (32, -1.47720520019531250000e+03) (33, 3.54689717292785644531e+00) (34, -6.57120084762573242188e+00) (35, -2.75597229003906250000e+01) (36, 2.15408142089843750000e+02) (37, 2.27951431274414062500e+00) (38, 8.11969089508056640625e+00) (39, -1.51382756233215332031e+00) (40, -1.50000000000000000000e+03) (41, -3.35152935981750488281e+00) (0, 1.83227062225341796875e+01) (1, -2.39955568313598632812e+00) (2, -5.13918209075927734375e+00) (3, 9.16082382202148437500e-01) (4, 5.45248474121093750000e+02) (5, -2.24881839752197265625e+00) (6, 6.24090850353240966797e-01) (7, 6.49294891357421875000e+01) (8, -1.29540454101562500000e+03) (9, 5.30013859272003173828e-01) (10, -1.85601747035980224609e+00) (11, 3.95712814331054687500e+01) (12, 9.19745178222656250000e+01) (13, -1.84806334972381591797e+00) (14, -2.63199567794799804688e+00) (15, -3.16171288490295410156e+00) (16, 3.20399627685546875000e+02) (17, -3.36047458648681640625e+00) (18, -1.00344252586364746094e+00) (19, -2.10150089263916015625e+01) (20, 1.18086486816406250000e+03) (21, -2.01067924499511718750e+00) (22, 1.12842285633087158203e+00) (23, 2.84300670623779296875e+01) (24, 4.25013885498046875000e+01) (25, -1.24618494510650634766e+00) (26, 1.69233548641204833984e+00) (27, 2.79369850158691406250e+01) (28, -1.22850415039062500000e+03) (29, -1.17274701595306396484e+00) (30, 1.50370001792907714844e+00) (31, -2.22685279846191406250e+01) (32, 2.12776916503906250000e+02) (33, 1.84258019924163818359e+00) (34, 7.58148610591888427734e-01) (35, -4.67055702209472656250e+01) (36, -2.77392456054687500000e+02) (37, 7.49153077602386474609e-01) (38, -2.41434550285339355469e+00) (39, -2.14089107513427734375e+01) (40, -5.82441223144531250000e+02) (41, 1.16273415088653564453e+00) (0, 2.49204502105712890625e+01) (1, 9.27328205108642578125e+00) (2, -1.49850404262542724609e+00) (3, 8.74266204833984375000e+01) (4, -6.78242614746093750000e+02) (5, 1.06382572650909423828e+00) (6, -2.79525804519653320312e+00) (7, 5.82002105712890625000e+01) (8, -1.50000000000000000000e+03) (9, 1.91952359676361083984e+00) (10, -1.17670559883117675781e+00) (11, 8.43129119873046875000e+01) (12, 1.50000000000000000000e+03) (13, -2.73142504692077636719e+00) (14, -5.78702539205551147461e-02) (15, 4.36686782836914062500e+01) (16, 4.06055847167968750000e+02) (17, -3.00244212150573730469e+00) (18, 1.61265504360198974609e+00) (19, 5.52439575195312500000e+01) (20, -8.77280517578125000000e+02) (21, -1.73082098364830017090e-01) (22, 6.45189762115478515625e-01) (23, 3.61137886047363281250e+01) (24, 1.49566052246093750000e+03) (25, 4.46183323860168457031e-01) (26, 5.59746384620666503906e-01) (27, 1.12952023744583129883e-01) (28, 1.50000000000000000000e+03) (29, -4.13825601339340209961e-01) (30, -1.95714533329010009766e+00) (31, -2.20460453033447265625e+01) (32, 9.00349060058593750000e+02) (33, 3.00594735145568847656e+00) (34, 2.08036041259765625000e+00) (35, 5.43060836791992187500e+01) (36, 1.04860827636718750000e+03) (37, -3.43686670064926147461e-01) (38, -1.27354753017425537109e+00) (39, -9.35784759521484375000e+01) (40, 3.33101196289062500000e+01) (41, -3.48056316375732421875e+00) (0, 5.86401939392089843750e+00) (1, -7.75739669799804687500e-01) (2, 1.42871296405792236328e+00) (3, 2.33800640106201171875e+01) (4, -6.58486022949218750000e+02) (5, 4.67306524515151977539e-01) (6, -5.06644725799560546875e-01) (7, -8.70391464233398437500e+00) (8, 5.10111358642578125000e+02) (9, -1.37627768516540527344e+00) (10, -2.04546049237251281738e-01) (11, -2.03362426757812500000e+01) (12, 1.98740997314453125000e+02) (13, -1.27134606242179870605e-01) (14, 1.37437030673027038574e-01) (15, -1.84929027557373046875e+01) (16, -4.51094268798828125000e+02) (17, -2.81869977712631225586e-01) (18, 8.00866544246673583984e-01) (19, -9.84383761882781982422e-01) (20, -9.95391967773437500000e+02) (21, -6.35841861367225646973e-02) (22, -9.17331457138061523438e-01) (23, -6.53868389129638671875e+00) (24, 1.44819763183593750000e+02) (25, 5.82200407981872558594e-01) (26, -7.03356623649597167969e-01) (27, -2.25731678009033203125e+01) (28, 3.94539916992187500000e+02) (29, 3.64102631807327270508e-01) (30, -3.11922639608383178711e-01) (31, -8.32452964782714843750e+00) (32, -2.54584636688232421875e+01) (33, -1.40282118320465087891e+00) (34, -8.19446444511413574219e-02) (35, 1.20964918136596679688e+01) (36, -1.35354232788085937500e+02) (37, -1.53266817331314086914e-01) (38, -1.15075111389160156250e-01) (39, 1.25507392883300781250e+01) (40, 1.86432357788085937500e+02) (41, -6.54110461473464965820e-02) (42, 8.89862895011901855469e-01) (43, 6.56989336013793945312e-01) (44, 1.00918877124786376953e+00) (45, -5.32345235347747802734e-01) (46, 1.05636954307556152344e+00) (47, -7.31552466750144958496e-02) (42, -5.12284100055694580078e-01) (43, 3.24983447790145874023e-01) (44, 4.82520520687103271484e-01) (45, 8.42407286167144775391e-01) (46, 8.96726846694946289062e-01) (47, -6.79797381162643432617e-02) 
