FANN_FLO_2.1
num_layers=3
learning_rate=0.700000
connection_rate=1.000000
network_type=0
learning_momentum=0.000000
training_algorithm=2
train_error_function=1
train_stop_function=0
cascade_output_change_fraction=0.010000
quickprop_decay=-0.000100
quickprop_mu=1.750000
rprop_increase_factor=1.200000
rprop_decrease_factor=0.500000
rprop_delta_min=0.000000
rprop_delta_max=50.000000
rprop_delta_zero=0.100000
cascade_output_stagnation_epochs=12
cascade_candidate_change_fraction=0.010000
cascade_candidate_stagnation_epochs=12
cascade_max_out_epochs=150
cascade_min_out_epochs=50
cascade_max_cand_epochs=150
cascade_min_cand_epochs=50
cascade_num_candidate_groups=2
bit_fail_limit=3.49999994039535522461e-01
cascade_candidate_limit=1.00000000000000000000e+03
cascade_weight_multiplier=4.00000005960464477539e-01
cascade_activation_functions_count=10
cascade_activation_functions=3 5 7 8 10 11 14 15 16 17 
cascade_activation_steepnesses_count=4
cascade_activation_steepnesses=2.50000000000000000000e-01 5.00000000000000000000e-01 7.50000000000000000000e-01 1.00000000000000000000e+00 
layer_sizes=32 4 2 
scale_included=0
neurons (num_inputs, activation_function, activation_steepness)=(0, 0, 0.00000000000000000000e+00) (0, 0, 0.00000000000000000000e+00) (0, 0, 0.00000000000000000000e+00) (0, 0, 0.00000000000000000000e+00) (0, 0, 0.00000000000000000000e+00) (0, 0, 0.00000000000000000000e+00) (0, 0, 0.00000000000000000000e+00) (0, 0, 0.00000000000000000000e+00) (0, 0, 0.00000000000000000000e+00) (0, 0, 0.00000000000000000000e+00) (0, 0, 0.00000000000000000000e+00) (0, 0, 0.00000000000000000000e+00) (0, 0, 0.00000000000000000000e+00) (0, 0, 0.00000000000000000000e+00) (0, 0, 0.00000000000000000000e+00) (0, 0, 0.00000000000000000000e+00) (0, 0, 0.00000000000000000000e+00) (0, 0, 0.00000000000000000000e+00) (0, 0, 0.00000000000000000000e+00) (0, 0, 0.00000000000000000000e+00) (0, 0, 0.00000000000000000000e+00) (0, 0, 0.00000000000000000000e+00) (0, 0, 0.00000000000000000000e+00) (0, 0, 0.00000000000000000000e+00) (0, 0, 0.00000000000000000000e+00) (0, 0, 0.00000000000000000000e+00) (0, 0, 0.00000000000000000000e+00) (0, 0, 0.00000000000000000000e+00) (0, 0, 0.00000000000000000000e+00) (0, 0, 0.00000000000000000000e+00) (0, 0, 0.00000000000000000000e+00) (0, 0, 0.00000000000000000000e+00) (32, 5, 5.00000000000000000000e-01) (32, 5, 5.00000000000000000000e-01) (32, 5, 5.00000000000000000000e-01) (0, 5, 0.00000000000000000000e+00) (4, 5, 5.00000000000000000000e-01) (0, 5, 0.00000000000000000000e+00) 
connections (connected_to_neuron, weight)=(0, 1.18740952014923095703e+00) (1, -3.34471678733825683594e+00) (2, 5.21328449249267578125e-01) (3, -1.40512478351593017578e+00) (4, -4.06707614660263061523e-01) (5, 9.78510901331901550293e-02) (6, 9.18215847015380859375e+00) (7, 2.34420299530029296875e+00) (8, 4.89345073699951171875e-01) (9, 2.35865640640258789062e+00) (10, 1.28315103054046630859e+00) (11, -2.38254022598266601562e+00) (12, 4.90753203630447387695e-02) (13, 1.71943560242652893066e-01) (14, -1.03077316284179687500e+00) (15, 2.09090471267700195312e+00) (16, 5.74119150638580322266e-01) (17, -6.77179098129272460938e-01) (18, 3.29374909400939941406e+00) (19, 5.87382018566131591797e-01) (20, 1.66869902610778808594e+00) (21, 6.13256096839904785156e-01) (22, -2.33915114402770996094e+00) (23, 1.95943725109100341797e+00) (24, -2.75646734237670898438e+00) (25, 8.94615590572357177734e-01) (26, 2.51698613166809082031e+00) (27, 3.40034151077270507812e+00) (28, -4.91466253995895385742e-01) (29, -4.62141692638397216797e-01) (30, 7.09894418716430664062e+00) (31, -3.01245868206024169922e-01) (0, 2.46311092376708984375e+01) (1, -2.14440002441406250000e+01) (2, -3.42093324661254882812e+00) (3, 3.54613571166992187500e+01) (4, 2.20260906219482421875e+00) (5, 3.13512563705444335938e+00) (6, -5.42015457153320312500e+00) (7, 4.94816875457763671875e+00) (8, -1.33562097549438476562e+01) (9, 2.84003696441650390625e+01) (10, 1.00890483856201171875e+01) (11, 1.63616120815277099609e-01) (12, 2.32215328216552734375e+01) (13, 1.81690196990966796875e+01) (14, -3.25777983665466308594e+00) (15, -7.10197687149047851562e+00) (16, -1.29939103126525878906e+00) (17, 1.38098821043968200684e-02) (18, -2.88880596160888671875e+01) (19, -8.68367099761962890625e+00) (20, -4.65751981735229492188e+00) (21, 9.58229732513427734375e+00) (22, -1.17398953437805175781e+00) (23, 1.14233407974243164062e+01) (24, -5.05186653137207031250e+00) (25, 4.04800683259963989258e-01) (26, -9.86561012268066406250e+00) (27, -4.37010765075683593750e+01) (28, 1.81741833686828613281e+00) (29, 4.83892250061035156250e+00) (30, -7.83356094360351562500e+01) (31, 1.92883443087339401245e-02) (0, -1.54269683837890625000e+02) (1, -6.02102844238281250000e+02) (2, -1.24590682983398437500e+02) (3, -4.91609096527099609375e+00) (4, 4.12217187881469726562e+00) (5, 1.69829483032226562500e+02) (6, 1.50000000000000000000e+03) (7, 1.61653930664062500000e+02) (8, 9.10208225250244140625e+00) (9, 1.26923614501953125000e+02) (10, -1.30389795303344726562e+01) (11, -2.69928169250488281250e+01) (12, 6.95511773228645324707e-02) (13, 2.45679893493652343750e+01) (14, -1.02198036193847656250e+02) (15, 1.48042083740234375000e+02) (16, -6.02496480941772460938e+00) (17, 5.24906272888183593750e+01) (18, -4.56428497314453125000e+02) (19, -1.95380744934082031250e+01) (20, 1.24143775939941406250e+02) (21, 4.23094299316406250000e+02) (22, -5.87639579772949218750e+01) (23, 1.26122789382934570312e+01) (24, -4.01890960693359375000e+02) (25, -2.53491663932800292969e+00) (26, 3.28742752075195312500e+01) (27, 1.11077160644531250000e+03) (28, 3.68258857727050781250e+01) (29, -4.08349752426147460938e+00) (30, 2.79844608306884765625e+01) (31, -8.49104285240173339844e-01) (32, 2.73017635345458984375e+01) (33, 1.49153175354003906250e+01) (34, -9.99469947814941406250e+00) (35, 3.99236351251602172852e-01) 
