FANN_FLO_2.1
num_layers=3
learning_rate=0.700000
connection_rate=1.000000
network_type=0
learning_momentum=0.000000
training_algorithm=2
train_error_function=1
train_stop_function=0
cascade_output_change_fraction=0.010000
quickprop_decay=-0.000100
quickprop_mu=1.750000
rprop_increase_factor=1.200000
rprop_decrease_factor=0.500000
rprop_delta_min=0.000000
rprop_delta_max=50.000000
rprop_delta_zero=0.100000
cascade_output_stagnation_epochs=12
cascade_candidate_change_fraction=0.010000
cascade_candidate_stagnation_epochs=12
cascade_max_out_epochs=150
cascade_min_out_epochs=50
cascade_max_cand_epochs=150
cascade_min_cand_epochs=50
cascade_num_candidate_groups=2
bit_fail_limit=3.49999994039535522461e-01
cascade_candidate_limit=1.00000000000000000000e+03
cascade_weight_multiplier=4.00000005960464477539e-01
cascade_activation_functions_count=10
cascade_activation_functions=3 5 7 8 10 11 14 15 16 17 
cascade_activation_steepnesses_count=4
cascade_activation_steepnesses=2.50000000000000000000e-01 5.00000000000000000000e-01 7.50000000000000000000e-01 1.00000000000000000000e+00 
layer_sizes=32 4 2 
scale_included=0
neurons (num_inputs, activation_function, activation_steepness)=(0, 0, 0.00000000000000000000e+00) (0, 0, 0.00000000000000000000e+00) (0, 0, 0.00000000000000000000e+00) (0, 0, 0.00000000000000000000e+00) (0, 0, 0.00000000000000000000e+00) (0, 0, 0.00000000000000000000e+00) (0, 0, 0.00000000000000000000e+00) (0, 0, 0.00000000000000000000e+00) (0, 0, 0.00000000000000000000e+00) (0, 0, 0.00000000000000000000e+00) (0, 0, 0.00000000000000000000e+00) (0, 0, 0.00000000000000000000e+00) (0, 0, 0.00000000000000000000e+00) (0, 0, 0.00000000000000000000e+00) (0, 0, 0.00000000000000000000e+00) (0, 0, 0.00000000000000000000e+00) (0, 0, 0.00000000000000000000e+00) (0, 0, 0.00000000000000000000e+00) (0, 0, 0.00000000000000000000e+00) (0, 0, 0.00000000000000000000e+00) (0, 0, 0.00000000000000000000e+00) (0, 0, 0.00000000000000000000e+00) (0, 0, 0.00000000000000000000e+00) (0, 0, 0.00000000000000000000e+00) (0, 0, 0.00000000000000000000e+00) (0, 0, 0.00000000000000000000e+00) (0, 0, 0.00000000000000000000e+00) (0, 0, 0.00000000000000000000e+00) (0, 0, 0.00000000000000000000e+00) (0, 0, 0.00000000000000000000e+00) (0, 0, 0.00000000000000000000e+00) (0, 0, 0.00000000000000000000e+00) (32, 5, 5.00000000000000000000e-01) (32, 5, 5.00000000000000000000e-01) (32, 5, 5.00000000000000000000e-01) (0, 5, 0.00000000000000000000e+00) (4, 5, 5.00000000000000000000e-01) (0, 5, 0.00000000000000000000e+00) 
connections (connected_to_neuron, weight)=(0, -1.38404321670532226562e+01) (1, 9.63089656829833984375e+00) (2, 4.81357812881469726562e+00) (3, -1.55943737030029296875e+01) (4, -5.98795557022094726562e+00) (5, 4.59842252731323242188e+00) (6, 4.57041120529174804688e+00) (7, 1.13255846500396728516e+00) (8, 6.76152467727661132812e+00) (9, 1.29024887084960937500e+00) (10, 1.10849320888519287109e+00) (11, -1.01211369037628173828e+00) (12, 3.00016365051269531250e+01) (13, -3.38348579406738281250e+00) (14, 8.15067350864410400391e-01) (15, 2.04704380035400390625e+01) (16, -5.44274449348449707031e-01) (17, 7.19576999545097351074e-02) (18, 2.66523861885070800781e+00) (19, -1.62125635147094726562e+00) (20, 1.64279639720916748047e-01) (21, -5.78578300476074218750e+01) (22, -3.92152309417724609375e+00) (23, -4.44829493761062622070e-01) (24, 3.71098670959472656250e+01) (25, -1.11783504486083984375e+00) (26, 3.88129055500030517578e-01) (27, 1.84732627868652343750e+01) (28, -4.42073464393615722656e-01) (29, -9.27391231060028076172e-01) (30, -5.92155504226684570312e+00) (31, 4.70730774104595184326e-02) (0, 4.63037204742431640625e+00) (1, 1.06202182769775390625e+01) (2, 4.38121891021728515625e+00) (3, 5.27435340881347656250e+01) (4, 5.96365976333618164062e+00) (5, -2.63961225748062133789e-01) (6, -4.30835113525390625000e+01) (7, 1.19496643543243408203e+00) (8, -3.52378249168395996094e+00) (9, 1.40345754623413085938e+01) (10, 7.90018224716186523438e+00) (11, -1.04689931869506835938e+00) (12, -2.72165737152099609375e+01) (13, -2.12357330322265625000e+00) (14, -1.28434717655181884766e+00) (15, 2.23257369995117187500e+01) (16, -6.42611145973205566406e-01) (17, 3.82060194015502929688e+00) (18, 2.33564548492431640625e+01) (19, -1.58521604537963867188e+00) (20, -4.83500862121582031250e+00) (21, 4.42657852172851562500e+01) (22, 5.43248772621154785156e-01) (23, -2.22140812873840332031e+00) (24, 5.41871337890625000000e+01) (25, -1.86209845542907714844e+00) (26, 3.14179992675781250000e+00) (27, -6.64072952270507812500e+01) (28, -7.45082199573516845703e-01) (29, 6.71949291229248046875e+00) (30, -4.91860675811767578125e+00) (31, -2.18873128294944763184e-01) (0, 5.02072181701660156250e+01) (1, -7.09113836288452148438e+00) (2, -1.12259159088134765625e+01) (3, -7.44022445678710937500e+01) (4, 1.51896834373474121094e+00) (5, 7.54651248455047607422e-01) (6, -1.06582572937011718750e+02) (7, 6.85259580612182617188e-01) (8, -1.34229650497436523438e+01) (9, 8.40481472015380859375e+00) (10, 6.30068635940551757812e+00) (11, 4.27013301849365234375e+00) (12, -9.43240547180175781250e+00) (13, 8.34929561614990234375e+00) (14, 3.26503419876098632812e+00) (15, -7.80095291137695312500e+01) (16, 1.55277585983276367188e+00) (17, -1.06489801406860351562e+00) (18, 3.56285705566406250000e+01) (19, 2.44500112533569335938e+00) (20, -2.80820965766906738281e+00) (21, 8.36277008056640625000e+01) (22, 3.29468631744384765625e+00) (23, 1.07720518112182617188e+00) (24, -8.04859828948974609375e+00) (25, 4.49915313720703125000e+00) (26, -7.08164453506469726562e-01) (27, -5.36066474914550781250e+01) (28, 4.15852689743041992188e+00) (29, 2.13516116142272949219e+00) (30, 5.09001846313476562500e+01) (31, 4.70936715602874755859e-01) (32, 2.77160625457763671875e+01) (33, -1.70873775482177734375e+01) (34, 2.53106136322021484375e+01) (35, 7.45491981506347656250e+00) 
