FANN_FLO_2.1
num_layers=3
learning_rate=0.700000
connection_rate=1.000000
network_type=0
learning_momentum=0.000000
training_algorithm=2
train_error_function=1
train_stop_function=0
cascade_output_change_fraction=0.010000
quickprop_decay=-0.000100
quickprop_mu=1.750000
rprop_increase_factor=1.200000
rprop_decrease_factor=0.500000
rprop_delta_min=0.000000
rprop_delta_max=50.000000
rprop_delta_zero=0.100000
cascade_output_stagnation_epochs=12
cascade_candidate_change_fraction=0.010000
cascade_candidate_stagnation_epochs=12
cascade_max_out_epochs=150
cascade_min_out_epochs=50
cascade_max_cand_epochs=150
cascade_min_cand_epochs=50
cascade_num_candidate_groups=2
bit_fail_limit=3.49999994039535522461e-01
cascade_candidate_limit=1.00000000000000000000e+03
cascade_weight_multiplier=4.00000005960464477539e-01
cascade_activation_functions_count=10
cascade_activation_functions=3 5 7 8 10 11 14 15 16 17 
cascade_activation_steepnesses_count=4
cascade_activation_steepnesses=2.50000000000000000000e-01 5.00000000000000000000e-01 7.50000000000000000000e-01 1.00000000000000000000e+00 
layer_sizes=32 4 3 
scale_included=0
neurons (num_inputs, activation_function, activation_steepness)=(0, 0, 0.00000000000000000000e+00) (0, 0, 0.00000000000000000000e+00) (0, 0, 0.00000000000000000000e+00) (0, 0, 0.00000000000000000000e+00) (0, 0, 0.00000000000000000000e+00) (0, 0, 0.00000000000000000000e+00) (0, 0, 0.00000000000000000000e+00) (0, 0, 0.00000000000000000000e+00) (0, 0, 0.00000000000000000000e+00) (0, 0, 0.00000000000000000000e+00) (0, 0, 0.00000000000000000000e+00) (0, 0, 0.00000000000000000000e+00) (0, 0, 0.00000000000000000000e+00) (0, 0, 0.00000000000000000000e+00) (0, 0, 0.00000000000000000000e+00) (0, 0, 0.00000000000000000000e+00) (0, 0, 0.00000000000000000000e+00) (0, 0, 0.00000000000000000000e+00) (0, 0, 0.00000000000000000000e+00) (0, 0, 0.00000000000000000000e+00) (0, 0, 0.00000000000000000000e+00) (0, 0, 0.00000000000000000000e+00) (0, 0, 0.00000000000000000000e+00) (0, 0, 0.00000000000000000000e+00) (0, 0, 0.00000000000000000000e+00) (0, 0, 0.00000000000000000000e+00) (0, 0, 0.00000000000000000000e+00) (0, 0, 0.00000000000000000000e+00) (0, 0, 0.00000000000000000000e+00) (0, 0, 0.00000000000000000000e+00) (0, 0, 0.00000000000000000000e+00) (0, 0, 0.00000000000000000000e+00) (32, 5, 5.00000000000000000000e-01) (32, 5, 5.00000000000000000000e-01) (32, 5, 5.00000000000000000000e-01) (0, 5, 0.00000000000000000000e+00) (4, 5, 5.00000000000000000000e-01) (4, 5, 5.00000000000000000000e-01) (0, 5, 0.00000000000000000000e+00) 
connections (connected_to_neuron, weight)=(0, 1.42646656036376953125e+01) (1, -2.43777632713317871094e+00) (2, -1.18090820312500000000e+00) (3, 1.33367414474487304688e+01) (4, -6.98302841186523437500e+00) (5, 3.08792352676391601562e-01) (6, -1.50769853591918945312e+00) (7, -1.71507441997528076172e+00) (8, -3.24341177940368652344e+00) (9, 5.65675735473632812500e-01) (10, -2.38913917541503906250e+00) (11, -2.14360618591308593750e+00) (12, 4.55636882781982421875e+00) (13, 3.25278329849243164062e+00) (14, -8.05225491523742675781e-01) (15, 5.43241024017333984375e-01) (16, 4.53857183456420898438e+00) (17, 2.79963898658752441406e+00) (18, -9.03035259246826171875e+00) (19, -4.85494658350944519043e-02) (20, -6.35194659233093261719e-01) (21, 9.46782970428466796875e+00) (22, 2.63155317306518554688e+00) (23, -4.23520058393478393555e-02) (24, 1.00559234619140625000e+00) (25, 4.82799679040908813477e-01) (26, -2.39205598831176757812e+00) (27, 6.31696367263793945312e+00) (28, -3.05960249900817871094e+00) (29, -2.31763029098510742188e+00) (30, -2.54581909179687500000e+01) (31, 1.81464099884033203125e+00) (0, 8.54254150390625000000e+02) (1, 1.32844955444335937500e+02) (2, 7.29988403320312500000e+02) (3, -1.50000000000000000000e+03) (4, 9.89480712890625000000e+02) (5, -2.10455764770507812500e+02) (6, -2.11471435546875000000e+02) (7, -1.10974487304687500000e+02) (8, 6.47369079589843750000e+02) (9, -7.70896850585937500000e+02) (10, -1.68120727539062500000e+02) (11, 2.74804931640625000000e+02) (12, -3.16123413085937500000e+02) (13, -4.75261779785156250000e+02) (14, -1.24174880981445312500e+02) (15, -9.94526794433593750000e+02) (16, -5.13115905761718750000e+02) (17, -2.57635101318359375000e+02) (18, 1.35010778808593750000e+03) (19, 1.27365325927734375000e+02) (20, 2.47256603240966796875e+01) (21, 4.94656280517578125000e+02) (22, 1.46040115356445312500e+02) (23, 4.21590080261230468750e+01) (24, -1.50000000000000000000e+03) (25, 2.53843048095703125000e+02) (26, 3.80158172607421875000e+02) (27, -1.29160937500000000000e+03) (28, 1.36676511764526367188e+01) (29, 2.67216644287109375000e+02) (30, 1.21234472656250000000e+03) (31, -2.86507476806640625000e+02) (0, 4.57454757690429687500e+01) (1, -1.24918193817138671875e+01) (2, 2.28883781433105468750e+01) (3, -2.61849117279052734375e+01) (4, -6.32582950592041015625e+00) (5, 5.21406412124633789062e+00) (6, -2.80290412902832031250e+01) (7, -2.38099250793457031250e+01) (8, 8.82544803619384765625e+00) (9, -2.31727504730224609375e+01) (10, -1.87768211364746093750e+01) (11, -2.32751202583312988281e+00) (12, 9.00957489013671875000e+00) (13, 1.15183172225952148438e+01) (14, -5.94315242767333984375e+00) (15, -2.31708335876464843750e+01) (16, 5.99062108993530273438e+00) (17, 6.87354207038879394531e-01) (18, -1.01103572845458984375e+01) (19, 2.09543933868408203125e+01) (20, -3.14089965820312500000e+00) (21, 9.42412033081054687500e+01) (22, 1.20135116577148437500e+01) (23, 1.96385228633880615234e+00) (24, -8.18156661987304687500e+01) (25, -2.63137316703796386719e+00) (26, -2.20303773880004882812e+00) (27, -3.48887062072753906250e+01) (28, -5.82531881332397460938e+00) (29, -5.56748437881469726562e+00) (30, -5.80921630859375000000e+01) (31, -1.24240303039550781250e+00) (32, -6.10110139846801757812e+00) (33, -4.76411294937133789062e+00) (34, 1.17757463455200195312e+00) (35, 1.23427414894104003906e+00) (32, 1.03335297107696533203e+00) (33, 1.21491026878356933594e+00) (34, -1.24445581436157226562e+00) (35, -3.81396591663360595703e-01) 
