FANN_FLO_2.1
num_layers=3
learning_rate=0.700000
connection_rate=1.000000
network_type=0
learning_momentum=0.000000
training_algorithm=2
train_error_function=1
train_stop_function=0
cascade_output_change_fraction=0.010000
quickprop_decay=-0.000100
quickprop_mu=1.750000
rprop_increase_factor=1.200000
rprop_decrease_factor=0.500000
rprop_delta_min=0.000000
rprop_delta_max=50.000000
rprop_delta_zero=0.100000
cascade_output_stagnation_epochs=12
cascade_candidate_change_fraction=0.010000
cascade_candidate_stagnation_epochs=12
cascade_max_out_epochs=150
cascade_min_out_epochs=50
cascade_max_cand_epochs=150
cascade_min_cand_epochs=50
cascade_num_candidate_groups=2
bit_fail_limit=3.49999994039535522461e-01
cascade_candidate_limit=1.00000000000000000000e+03
cascade_weight_multiplier=4.00000005960464477539e-01
cascade_activation_functions_count=10
cascade_activation_functions=3 5 7 8 10 11 14 15 16 17 
cascade_activation_steepnesses_count=4
cascade_activation_steepnesses=2.50000000000000000000e-01 5.00000000000000000000e-01 7.50000000000000000000e-01 1.00000000000000000000e+00 
layer_sizes=32 4 2 
scale_included=0
neurons (num_inputs, activation_function, activation_steepness)=(0, 0, 0.00000000000000000000e+00) (0, 0, 0.00000000000000000000e+00) (0, 0, 0.00000000000000000000e+00) (0, 0, 0.00000000000000000000e+00) (0, 0, 0.00000000000000000000e+00) (0, 0, 0.00000000000000000000e+00) (0, 0, 0.00000000000000000000e+00) (0, 0, 0.00000000000000000000e+00) (0, 0, 0.00000000000000000000e+00) (0, 0, 0.00000000000000000000e+00) (0, 0, 0.00000000000000000000e+00) (0, 0, 0.00000000000000000000e+00) (0, 0, 0.00000000000000000000e+00) (0, 0, 0.00000000000000000000e+00) (0, 0, 0.00000000000000000000e+00) (0, 0, 0.00000000000000000000e+00) (0, 0, 0.00000000000000000000e+00) (0, 0, 0.00000000000000000000e+00) (0, 0, 0.00000000000000000000e+00) (0, 0, 0.00000000000000000000e+00) (0, 0, 0.00000000000000000000e+00) (0, 0, 0.00000000000000000000e+00) (0, 0, 0.00000000000000000000e+00) (0, 0, 0.00000000000000000000e+00) (0, 0, 0.00000000000000000000e+00) (0, 0, 0.00000000000000000000e+00) (0, 0, 0.00000000000000000000e+00) (0, 0, 0.00000000000000000000e+00) (0, 0, 0.00000000000000000000e+00) (0, 0, 0.00000000000000000000e+00) (0, 0, 0.00000000000000000000e+00) (0, 0, 0.00000000000000000000e+00) (32, 5, 5.00000000000000000000e-01) (32, 5, 5.00000000000000000000e-01) (32, 5, 5.00000000000000000000e-01) (0, 5, 0.00000000000000000000e+00) (4, 5, 5.00000000000000000000e-01) (0, 5, 0.00000000000000000000e+00) 
connections (connected_to_neuron, weight)=(0, -2.61699461936950683594e+00) (1, -2.18506717681884765625e+00) (2, 1.39741623401641845703e+00) (3, 2.01544070243835449219e+00) (4, -1.23406243324279785156e+00) (5, 3.79464864730834960938e+00) (6, -1.16687574386596679688e+01) (7, -3.33227372169494628906e+00) (8, 3.07166767120361328125e+00) (9, -2.78272342681884765625e+00) (10, 4.28515344858169555664e-01) (11, 5.51233410835266113281e-01) (12, -2.21328556537628173828e-01) (13, 3.31525593996047973633e-01) (14, -5.26687979698181152344e-01) (15, 2.13429141044616699219e+00) (16, 7.84421786665916442871e-02) (17, -2.14166736602783203125e+00) (18, -4.54910993576049804688e+00) (19, 1.60007238388061523438e+00) (20, 9.00674700736999511719e-01) (21, 6.14066696166992187500e+00) (22, 2.44917999953031539917e-02) (23, 5.47916829586029052734e-01) (24, -2.37745170593261718750e+01) (25, 7.61277198791503906250e-01) (26, -1.00643336772918701172e-01) (27, 9.03581738471984863281e-01) (28, 9.58495676517486572266e-01) (29, -6.00607097148895263672e-01) (30, -1.88673222064971923828e+00) (31, 5.25257408618927001953e-01) (0, -7.17785298824310302734e-01) (1, 2.16351389884948730469e+00) (2, 2.40450859069824218750e+00) (3, 1.47084498405456542969e+00) (4, -1.80265641212463378906e+00) (5, 1.45670557022094726562e+00) (6, 1.27931043505668640137e-01) (7, 2.19828629493713378906e+00) (8, 2.93106764554977416992e-01) (9, 2.29195766448974609375e+01) (10, 5.04254961013793945312e+00) (11, -7.31715619564056396484e-01) (12, 2.79031127691268920898e-01) (13, 1.33211827278137207031e+00) (14, 2.70782820880413055420e-02) (15, -3.98864436149597167969e+00) (16, 2.91157871484756469727e-01) (17, -1.52261197566986083984e+00) (18, -4.49171924591064453125e+00) (19, -1.02917742729187011719e+00) (20, 5.63079655170440673828e-01) (21, 3.51337265968322753906e+00) (22, -5.34076206386089324951e-02) (23, -6.43928647041320800781e-01) (24, -1.57631635665893554688e+00) (25, 1.62430274486541748047e+00) (26, -1.93387523293495178223e-01) (27, 6.08805084228515625000e+00) (28, 7.63599157333374023438e-01) (29, 1.68921142816543579102e-01) (30, 3.17187709808349609375e+01) (31, 7.61613130569458007812e-01) (0, 1.03568911552429199219e+00) (1, 1.10160388946533203125e+01) (2, 1.97541618347167968750e+00) (3, 1.98129087686538696289e-01) (4, 4.53105306625366210938e+00) (5, 6.64720153808593750000e+00) (6, -3.21808266639709472656e+00) (7, -3.77057820558547973633e-01) (8, 2.92366337776184082031e+00) (9, 6.29822301864624023438e+00) (10, 3.64705801010131835938e+00) (11, 1.36766016483306884766e+00) (12, -1.81541487574577331543e-01) (13, 3.16348165273666381836e-01) (14, -4.14116650819778442383e-01) (15, 7.58686065673828125000e+00) (16, 5.18916606903076171875e+00) (17, -3.51499128341674804688e+00) (18, 3.76379036903381347656e+00) (19, 2.95658087730407714844e+00) (20, -1.00712585449218750000e+00) (21, 1.22292542457580566406e+00) (22, 1.62165737152099609375e+00) (23, 2.13112115859985351562e+00) (24, -6.37604117393493652344e-01) (25, -2.98204481601715087891e-01) (26, 4.53585004806518554688e+00) (27, 1.99539680480957031250e+01) (28, 5.12409830093383789062e+00) (29, 3.17342072725296020508e-01) (30, -4.30342912673950195312e-01) (31, -8.36695358157157897949e-02) (32, 6.97695064544677734375e+00) (33, 5.39846706390380859375e+00) (34, -6.42555093765258789062e+00) (35, 1.14977931976318359375e+00) 
