FANN_FLO_2.1
num_layers=3
learning_rate=0.700000
connection_rate=1.000000
network_type=0
learning_momentum=0.000000
training_algorithm=2
train_error_function=1
train_stop_function=0
cascade_output_change_fraction=0.010000
quickprop_decay=-0.000100
quickprop_mu=1.750000
rprop_increase_factor=1.200000
rprop_decrease_factor=0.500000
rprop_delta_min=0.000000
rprop_delta_max=50.000000
rprop_delta_zero=0.100000
cascade_output_stagnation_epochs=12
cascade_candidate_change_fraction=0.010000
cascade_candidate_stagnation_epochs=12
cascade_max_out_epochs=150
cascade_min_out_epochs=50
cascade_max_cand_epochs=150
cascade_min_cand_epochs=50
cascade_num_candidate_groups=2
bit_fail_limit=3.49999994039535522461e-01
cascade_candidate_limit=1.00000000000000000000e+03
cascade_weight_multiplier=4.00000005960464477539e-01
cascade_activation_functions_count=10
cascade_activation_functions=3 5 7 8 10 11 14 15 16 17 
cascade_activation_steepnesses_count=4
cascade_activation_steepnesses=2.50000000000000000000e-01 5.00000000000000000000e-01 7.50000000000000000000e-01 1.00000000000000000000e+00 
layer_sizes=32 6 3 
scale_included=0
neurons (num_inputs, activation_function, activation_steepness)=(0, 0, 0.00000000000000000000e+00) (0, 0, 0.00000000000000000000e+00) (0, 0, 0.00000000000000000000e+00) (0, 0, 0.00000000000000000000e+00) (0, 0, 0.00000000000000000000e+00) (0, 0, 0.00000000000000000000e+00) (0, 0, 0.00000000000000000000e+00) (0, 0, 0.00000000000000000000e+00) (0, 0, 0.00000000000000000000e+00) (0, 0, 0.00000000000000000000e+00) (0, 0, 0.00000000000000000000e+00) (0, 0, 0.00000000000000000000e+00) (0, 0, 0.00000000000000000000e+00) (0, 0, 0.00000000000000000000e+00) (0, 0, 0.00000000000000000000e+00) (0, 0, 0.00000000000000000000e+00) (0, 0, 0.00000000000000000000e+00) (0, 0, 0.00000000000000000000e+00) (0, 0, 0.00000000000000000000e+00) (0, 0, 0.00000000000000000000e+00) (0, 0, 0.00000000000000000000e+00) (0, 0, 0.00000000000000000000e+00) (0, 0, 0.00000000000000000000e+00) (0, 0, 0.00000000000000000000e+00) (0, 0, 0.00000000000000000000e+00) (0, 0, 0.00000000000000000000e+00) (0, 0, 0.00000000000000000000e+00) (0, 0, 0.00000000000000000000e+00) (0, 0, 0.00000000000000000000e+00) (0, 0, 0.00000000000000000000e+00) (0, 0, 0.00000000000000000000e+00) (0, 0, 0.00000000000000000000e+00) (32, 5, 5.00000000000000000000e-01) (32, 5, 5.00000000000000000000e-01) (32, 5, 5.00000000000000000000e-01) (32, 5, 5.00000000000000000000e-01) (32, 5, 5.00000000000000000000e-01) (0, 5, 0.00000000000000000000e+00) (6, 5, 5.00000000000000000000e-01) (6, 5, 5.00000000000000000000e-01) (0, 5, 0.00000000000000000000e+00) 
connections (connected_to_neuron, weight)=(0, -6.95961059570312500000e+02) (1, 5.08149871826171875000e+01) (2, 9.26386947631835937500e+01) (3, 1.71629455566406250000e+02) (4, 7.03179216384887695312e+00) (5, -2.59056472778320312500e+01) (6, 2.16811614990234375000e+02) (7, 2.21262340545654296875e+01) (8, 3.40593338012695312500e+01) (9, -1.13149337768554687500e+02) (10, 1.74115657806396484375e+01) (11, 3.49224510192871093750e+01) (12, -7.24727392196655273438e+00) (13, 6.53136777877807617188e+00) (14, 1.52938485145568847656e+00) (15, 3.37309143066406250000e+02) (16, 4.64814615249633789062e+00) (17, 3.61775493621826171875e+00) (18, 1.12141551971435546875e+01) (19, 2.81725072860717773438e+00) (20, 7.97741532325744628906e-01) (21, 2.92944908142089843750e+01) (22, -2.37709552049636840820e-01) (23, 4.94578599929809570312e+00) (24, -3.02255439758300781250e+01) (25, -2.23363876342773437500e+01) (26, 3.99054217338562011719e+00) (27, 1.47716201782226562500e+02) (28, -1.03492088317871093750e+01) (29, -3.85150194168090820312e+00) (30, 1.45678222656250000000e+02) (31, -4.80812120437622070312e+00) (0, -7.54058761596679687500e+01) (1, 2.09089317321777343750e+01) (2, -9.59510898590087890625e+00) (3, -4.90946578979492187500e+01) (4, 9.99373054504394531250e+00) (5, -1.67260181903839111328e+00) (6, -4.58066253662109375000e+01) (7, -1.19015967845916748047e+00) (8, -2.68253397941589355469e+00) (9, 5.56609077453613281250e+01) (10, -6.51406002044677734375e+00) (11, 8.27375948429107666016e-01) (12, 4.65859870910644531250e+01) (13, 7.00938701629638671875e-01) (14, 2.21592283248901367188e+00) (15, -6.02790565490722656250e+01) (16, 2.45840883255004882812e+00) (17, -5.05439281463623046875e-01) (18, 6.80652008056640625000e+01) (19, 3.44001913070678710938e+00) (20, -9.79218196868896484375e+00) (21, 4.40117073059082031250e+01) (22, 4.98744583129882812500e+00) (23, -7.75156784057617187500e+00) (24, 2.93344914913177490234e-01) (25, 6.83944523334503173828e-01) (26, 2.64107537269592285156e+00) (27, 1.67989562988281250000e+02) (28, 7.18519306182861328125e+00) (29, 1.08369147777557373047e+00) (30, 2.54362731933593750000e+02) (31, -2.39004641771316528320e-01) (0, -3.56392822265625000000e+01) (1, 2.35480737686157226562e+00) (2, 1.70680737495422363281e+00) (3, 8.54039096832275390625e+00) (4, 9.00263845920562744141e-01) (5, -1.21271550655364990234e+00) (6, 2.13061571121215820312e+00) (7, 5.38226485252380371094e-01) (8, 7.82975971698760986328e-01) (9, -1.08647513389587402344e+00) (10, 1.09332573413848876953e+00) (11, 1.40253186225891113281e-01) (12, -2.86411166191101074219e+00) (13, 4.56014782190322875977e-01) (14, -3.44731360673904418945e-02) (15, 4.55687808990478515625e+00) (16, 7.29022204875946044922e-01) (17, 1.91275939345359802246e-01) (18, -2.96064853668212890625e+00) (19, 1.83346688747406005859e-01) (20, -3.93512576818466186523e-01) (21, 5.57572221755981445312e+00) (22, 1.56759709119796752930e-01) (23, -1.41960024833679199219e-01) (24, -2.68918466567993164062e+00) (25, -4.25600320100784301758e-01) (26, -1.22633233666419982910e-01) (27, -9.99280452728271484375e+00) (28, -4.09918278455734252930e-01) (29, 6.38697445392608642578e-01) (30, -1.07604229450225830078e+00) (31, -1.89408529549837112427e-02) (0, 1.12582008361816406250e+02) (1, -1.50344934463500976562e+01) (2, 8.39674186706542968750e+00) (3, 1.31811050415039062500e+02) (4, 2.59183406829833984375e+00) (5, 4.21694469451904296875e+00) (6, 2.11751289367675781250e+01) (7, -6.52555561065673828125e+00) (8, 3.68332654237747192383e-01) (9, 3.82338905334472656250e+01) (10, 4.27744925022125244141e-01) (11, -4.92660474777221679688e+00) (12, 3.34823379516601562500e+01) (13, -1.73348259925842285156e+00) (14, 4.28099632263183593750e+00) (15, -1.03534309387207031250e+02) (16, 1.62551075220108032227e-01) (17, 2.87561273574829101562e+00) (18, -4.13463020324707031250e+01) (19, -3.61420989036560058594e-01) (20, 3.13381171226501464844e+00) (21, -2.68964099884033203125e+01) (22, -1.22073211669921875000e+01) (23, 5.10979700088500976562e+00) (24, 7.40771942138671875000e+01) (25, 5.76380586624145507812e+00) (26, -1.19758760929107666016e+00) (27, -1.61437911987304687500e+02) (28, 6.86932802200317382812e+00) (29, 2.64207935333251953125e+00) (30, 2.68900222778320312500e+01) (31, 1.22171342372894287109e+00) (0, -6.05193519592285156250e+01) (1, 4.26596164703369140625e+00) (2, 3.06908106803894042969e+00) (3, 7.44691619873046875000e+01) (4, 9.09464657306671142578e-01) (5, -2.09598493576049804688e+00) (6, 3.10542011260986328125e+01) (7, -1.68857371807098388672e+00) (8, 1.93840071558952331543e-01) (9, 2.23400821685791015625e+01) (10, 1.61848330497741699219e+00) (11, -1.56418848037719726562e+00) (12, 7.93016624450683593750e+00) (13, 1.58845329284667968750e+00) (14, -1.54511645436286926270e-01) (15, -8.11965179443359375000e+00) (16, 1.42282605171203613281e+00) (17, -1.10327951610088348389e-01) (18, 3.37672382593154907227e-02) (19, 3.45585733652114868164e-01) (20, -1.41583752632141113281e+00) (21, 3.77820320129394531250e+01) (22, -1.63155126571655273438e+00) (23, -8.03410112857818603516e-01) (24, 2.27538852691650390625e+01) (25, -1.24276375770568847656e+00) (26, -4.88991141319274902344e-01) (27, -5.17591934204101562500e+01) (28, 4.50540065765380859375e-01) (29, 1.88607716560363769531e+00) (30, 1.61338310241699218750e+01) (31, -9.00904655456542968750e-01) (32, 4.39377963542938232422e-01) (33, -2.63205736875534057617e-01) (34, -1.98396503925323486328e+00) (35, -3.34308266639709472656e-01) (36, 7.19941139221191406250e-01) (37, -6.54305756092071533203e-01) (32, -4.62541043758392333984e-01) (33, -5.33095002174377441406e-01) (34, -2.67463058233261108398e-01) (35, -6.77757501602172851562e-01) (36, 6.07057631015777587891e-01) (37, -3.17600811831653118134e-03) 
