FANN_FLO_2.1
num_layers=3
learning_rate=0.700000
connection_rate=1.000000
network_type=0
learning_momentum=0.000000
training_algorithm=2
train_error_function=1
train_stop_function=0
cascade_output_change_fraction=0.010000
quickprop_decay=-0.000100
quickprop_mu=1.750000
rprop_increase_factor=1.200000
rprop_decrease_factor=0.500000
rprop_delta_min=0.000000
rprop_delta_max=50.000000
rprop_delta_zero=0.100000
cascade_output_stagnation_epochs=12
cascade_candidate_change_fraction=0.010000
cascade_candidate_stagnation_epochs=12
cascade_max_out_epochs=150
cascade_min_out_epochs=50
cascade_max_cand_epochs=150
cascade_min_cand_epochs=50
cascade_num_candidate_groups=2
bit_fail_limit=3.49999994039535522461e-01
cascade_candidate_limit=1.00000000000000000000e+03
cascade_weight_multiplier=4.00000005960464477539e-01
cascade_activation_functions_count=10
cascade_activation_functions=3 5 7 8 10 11 14 15 16 17 
cascade_activation_steepnesses_count=4
cascade_activation_steepnesses=2.50000000000000000000e-01 5.00000000000000000000e-01 7.50000000000000000000e-01 1.00000000000000000000e+00 
layer_sizes=32 4 2 
scale_included=0
neurons (num_inputs, activation_function, activation_steepness)=(0, 0, 0.00000000000000000000e+00) (0, 0, 0.00000000000000000000e+00) (0, 0, 0.00000000000000000000e+00) (0, 0, 0.00000000000000000000e+00) (0, 0, 0.00000000000000000000e+00) (0, 0, 0.00000000000000000000e+00) (0, 0, 0.00000000000000000000e+00) (0, 0, 0.00000000000000000000e+00) (0, 0, 0.00000000000000000000e+00) (0, 0, 0.00000000000000000000e+00) (0, 0, 0.00000000000000000000e+00) (0, 0, 0.00000000000000000000e+00) (0, 0, 0.00000000000000000000e+00) (0, 0, 0.00000000000000000000e+00) (0, 0, 0.00000000000000000000e+00) (0, 0, 0.00000000000000000000e+00) (0, 0, 0.00000000000000000000e+00) (0, 0, 0.00000000000000000000e+00) (0, 0, 0.00000000000000000000e+00) (0, 0, 0.00000000000000000000e+00) (0, 0, 0.00000000000000000000e+00) (0, 0, 0.00000000000000000000e+00) (0, 0, 0.00000000000000000000e+00) (0, 0, 0.00000000000000000000e+00) (0, 0, 0.00000000000000000000e+00) (0, 0, 0.00000000000000000000e+00) (0, 0, 0.00000000000000000000e+00) (0, 0, 0.00000000000000000000e+00) (0, 0, 0.00000000000000000000e+00) (0, 0, 0.00000000000000000000e+00) (0, 0, 0.00000000000000000000e+00) (0, 0, 0.00000000000000000000e+00) (32, 5, 5.00000000000000000000e-01) (32, 5, 5.00000000000000000000e-01) (32, 5, 5.00000000000000000000e-01) (0, 5, 0.00000000000000000000e+00) (4, 5, 5.00000000000000000000e-01) (0, 5, 0.00000000000000000000e+00) 
connections (connected_to_neuron, weight)=(0, -7.76970386505126953125e-02) (1, 4.31897735595703125000e+00) (2, 1.17611646652221679688e+00) (3, -2.44654750823974609375e+01) (4, 2.55779176950454711914e-01) (5, 2.17503428459167480469e+00) (6, -1.52850399017333984375e+01) (7, -2.89099192619323730469e+00) (8, -9.39216434955596923828e-01) (9, -1.49514017105102539062e+01) (10, -4.53970956802368164062e+00) (11, 1.93463361263275146484e+00) (12, -1.53080978393554687500e+01) (13, -2.61722922325134277344e+00) (14, 2.34454917907714843750e+00) (15, 3.75659155845642089844e+00) (16, -1.35799869894981384277e-01) (17, -3.56689810752868652344e+00) (18, -9.17910933494567871094e-01) (19, -4.62366771697998046875e+00) (20, -2.32592988014221191406e+00) (21, 6.86992549896240234375e+00) (22, 4.04020071029663085938e+00) (23, -2.45271849632263183594e+00) (24, 9.13015270233154296875e+00) (25, 1.01233375072479248047e+00) (26, -1.73836755752563476562e+00) (27, -1.17551708221435546875e+01) (28, 8.92242193222045898438e-02) (29, 1.55389928817749023438e+00) (30, -1.67397670745849609375e+01) (31, 6.94563925266265869141e-01) (0, 1.49999768066406250000e+03) (1, 1.50000000000000000000e+03) (2, 1.50000000000000000000e+03) (3, -1.24022973632812500000e+03) (4, 1.50000000000000000000e+03) (5, -1.50000000000000000000e+03) (6, -1.50000000000000000000e+03) (7, -1.49443029785156250000e+03) (8, 1.18564245605468750000e+03) (9, 1.47000000000000000000e+03) (10, -1.42869140625000000000e+03) (11, -2.77224822998046875000e+02) (12, 1.50000000000000000000e+03) (13, 1.50000000000000000000e+03) (14, 1.39080004882812500000e+03) (15, -1.49355126953125000000e+03) (16, -1.46700000000000000000e+03) (17, -1.50000000000000000000e+03) (18, -1.50000000000000000000e+03) (19, -1.49959863281250000000e+03) (20, -1.50000000000000000000e+03) (21, 1.49999938964843750000e+03) (22, 9.80130249023437500000e+02) (23, -1.50000000000000000000e+03) (24, 1.48717224121093750000e+03) (25, -1.93568588256835937500e+02) (26, -1.50000000000000000000e+03) (27, -1.50000000000000000000e+03) (28, 1.31276538085937500000e+03) (29, 1.50000000000000000000e+03) (30, -1.50000000000000000000e+03) (31, -6.45626907348632812500e+01) (0, -1.13956396484375000000e+03) (1, -1.50000000000000000000e+03) (2, -1.50000000000000000000e+03) (3, -1.49965124511718750000e+03) (4, -1.49200158691406250000e+03) (5, 1.50000000000000000000e+03) (6, 1.50000000000000000000e+03) (7, 1.49998815917968750000e+03) (8, 9.67813476562500000000e+02) (9, -1.44500000000000000000e+03) (10, 1.16147785186767578125e+01) (11, -1.43820996093750000000e+03) (12, -1.50000000000000000000e+03) (13, -1.16797399902343750000e+03) (14, -1.47592248535156250000e+03) (15, 1.49997729492187500000e+03) (16, 1.47000000000000000000e+03) (17, 1.50000000000000000000e+03) (18, 1.50000000000000000000e+03) (19, 1.49998034667968750000e+03) (20, 1.50000000000000000000e+03) (21, -1.42499218750000000000e+03) (22, 1.19583911132812500000e+03) (23, 1.50000000000000000000e+03) (24, -1.49214770507812500000e+03) (25, 2.56733886718750000000e+02) (26, 6.40100646972656250000e+02) (27, 1.50000000000000000000e+03) (28, -4.68429870605468750000e+02) (29, -1.49999011230468750000e+03) (30, 1.50000000000000000000e+03) (31, 7.11113830566406250000e+02) (32, -1.10481834411621093750e+01) (33, 1.57318556308746337891e+00) (34, -1.93426668643951416016e+00) (35, -7.78892850875854492188e+00) 
