FANN_FLO_2.1
num_layers=3
learning_rate=0.700000
connection_rate=1.000000
network_type=0
learning_momentum=0.000000
training_algorithm=2
train_error_function=1
train_stop_function=0
cascade_output_change_fraction=0.010000
quickprop_decay=-0.000100
quickprop_mu=1.750000
rprop_increase_factor=1.200000
rprop_decrease_factor=0.500000
rprop_delta_min=0.000000
rprop_delta_max=50.000000
rprop_delta_zero=0.100000
cascade_output_stagnation_epochs=12
cascade_candidate_change_fraction=0.010000
cascade_candidate_stagnation_epochs=12
cascade_max_out_epochs=150
cascade_min_out_epochs=50
cascade_max_cand_epochs=150
cascade_min_cand_epochs=50
cascade_num_candidate_groups=2
bit_fail_limit=3.49999994039535522461e-01
cascade_candidate_limit=1.00000000000000000000e+03
cascade_weight_multiplier=4.00000005960464477539e-01
cascade_activation_functions_count=10
cascade_activation_functions=3 5 7 8 10 11 14 15 16 17 
cascade_activation_steepnesses_count=4
cascade_activation_steepnesses=2.50000000000000000000e-01 5.00000000000000000000e-01 7.50000000000000000000e-01 1.00000000000000000000e+00 
layer_sizes=32 4 2 
scale_included=0
neurons (num_inputs, activation_function, activation_steepness)=(0, 0, 0.00000000000000000000e+00) (0, 0, 0.00000000000000000000e+00) (0, 0, 0.00000000000000000000e+00) (0, 0, 0.00000000000000000000e+00) (0, 0, 0.00000000000000000000e+00) (0, 0, 0.00000000000000000000e+00) (0, 0, 0.00000000000000000000e+00) (0, 0, 0.00000000000000000000e+00) (0, 0, 0.00000000000000000000e+00) (0, 0, 0.00000000000000000000e+00) (0, 0, 0.00000000000000000000e+00) (0, 0, 0.00000000000000000000e+00) (0, 0, 0.00000000000000000000e+00) (0, 0, 0.00000000000000000000e+00) (0, 0, 0.00000000000000000000e+00) (0, 0, 0.00000000000000000000e+00) (0, 0, 0.00000000000000000000e+00) (0, 0, 0.00000000000000000000e+00) (0, 0, 0.00000000000000000000e+00) (0, 0, 0.00000000000000000000e+00) (0, 0, 0.00000000000000000000e+00) (0, 0, 0.00000000000000000000e+00) (0, 0, 0.00000000000000000000e+00) (0, 0, 0.00000000000000000000e+00) (0, 0, 0.00000000000000000000e+00) (0, 0, 0.00000000000000000000e+00) (0, 0, 0.00000000000000000000e+00) (0, 0, 0.00000000000000000000e+00) (0, 0, 0.00000000000000000000e+00) (0, 0, 0.00000000000000000000e+00) (0, 0, 0.00000000000000000000e+00) (0, 0, 0.00000000000000000000e+00) (32, 5, 5.00000000000000000000e-01) (32, 5, 5.00000000000000000000e-01) (32, 5, 5.00000000000000000000e-01) (0, 5, 0.00000000000000000000e+00) (4, 5, 5.00000000000000000000e-01) (0, 5, 0.00000000000000000000e+00) 
connections (connected_to_neuron, weight)=(0, 3.30658650398254394531e+00) (1, -3.80724287033081054688e+00) (2, 3.54349088668823242188e+00) (3, 3.97826957702636718750e+00) (4, -2.72295594215393066406e-01) (5, 1.73782765865325927734e+00) (6, -9.59970891475677490234e-01) (7, 4.26837265491485595703e-01) (8, 1.12727022171020507812e+00) (9, -1.81555271148681640625e-01) (10, -1.31546258926391601562e+00) (11, 5.93401789665222167969e-01) (12, 4.99416589736938476562e-01) (13, 2.90032792091369628906e+00) (14, 1.28923594951629638672e+00) (15, -8.48141778260469436646e-03) (16, -1.09993755817413330078e+00) (17, -3.54610347747802734375e+00) (18, 4.08837705850601196289e-01) (19, 3.46353793144226074219e+00) (20, 1.16710114479064941406e+00) (21, -9.26370173692703247070e-02) (22, 3.74927687644958496094e+00) (23, 3.43336892127990722656e+00) (24, -8.05937945842742919922e-01) (25, 7.35073328018188476562e-01) (26, -1.07987260818481445312e+00) (27, -1.76793754100799560547e+00) (28, 3.25079870223999023438e+00) (29, 8.64048838615417480469e-01) (30, 4.45482683181762695312e+00) (31, -4.18364584445953369141e-01) (0, 5.98706245422363281250e-01) (1, 1.20837187767028808594e+00) (2, -4.17635440826416015625e+00) (3, 1.30972933769226074219e+00) (4, 6.02495253086090087891e-01) (5, 2.81729197502136230469e+00) (6, 1.00809025764465332031e+00) (7, -8.34038615226745605469e-01) (8, 1.19987416267395019531e+00) (9, 1.71086943149566650391e+00) (10, 5.28720259666442871094e-01) (11, 2.98183083534240722656e+00) (12, 3.17173808813095092773e-01) (13, -7.31580317020416259766e-01) (14, 5.70992045104503631592e-02) (15, 8.12789916992187500000e-01) (16, -4.15893316268920898438e+00) (17, 1.33912777900695800781e+00) (18, 2.35965847969055175781e-01) (19, 1.33328527212142944336e-01) (20, -8.02964985370635986328e-01) (21, -1.38225865364074707031e+00) (22, 1.52578628063201904297e+00) (23, 1.23789525032043457031e+00) (24, -5.32327890396118164062e-01) (25, 5.97622215747833251953e-01) (26, 1.20434403419494628906e+00) (27, -4.04752254486083984375e-01) (28, -1.38474881649017333984e+00) (29, 1.35351073741912841797e+00) (30, 1.06498563289642333984e+00) (31, 3.24355578422546386719e+00) (0, 7.13892877101898193359e-01) (1, 1.08126819133758544922e+00) (2, 4.25910651683807373047e-01) (3, -2.20077896118164062500e+00) (4, 1.58820319175720214844e+00) (5, 7.65850186347961425781e-01) (6, 3.56876611709594726562e-01) (7, 1.30388951301574707031e+00) (8, -2.31870150566101074219e+00) (9, 7.63287186622619628906e-01) (10, -3.36532108485698699951e-02) (11, -1.23844313621520996094e+00) (12, 1.25304198265075683594e+00) (13, -1.75897860527038574219e+00) (14, 1.32546269893646240234e+00) (15, 7.56604909896850585938e-01) (16, 3.94353359937667846680e-01) (17, 2.37079906463623046875e+00) (18, -3.29177260398864746094e-01) (19, -1.32043468952178955078e+00) (20, -2.95402735471725463867e-01) (21, 3.69516879320144653320e-01) (22, -1.79192960262298583984e+00) (23, 1.56838327646255493164e-01) (24, 5.75560092926025390625e-01) (25, 4.91397142410278320312e-01) (26, 1.06811451911926269531e+00) (27, 1.48735666275024414062e+00) (28, -8.50669085979461669922e-01) (29, 4.76673156023025512695e-01) (30, -1.32690751552581787109e+00) (31, -1.43716955184936523438e+00) (32, 4.08003723144531250000e+02) (33, -4.41377838134765625000e+02) (34, 4.39897521972656250000e+02) (35, 3.96819488525390625000e+02) 
